digraph Tree {
node [shape=box, style="filled", color="black", fontname="helvetica"] ;
edge [fontname="helvetica"] ;
0 [label="Income <= 2750.0\ngini = 0.775\nsamples = 20\nvalue = [1, 7, 2, 4, 2, 4]\nclass = car", fillcolor="#edfada"] ;
1 [label="Income <= 1050.0\ngini = 0.7\nsamples = 10\nvalue = [1, 0, 0, 4, 2, 3]\nclass = metro", fillcolor="#e3f1fb"] ;
0 -> 1 [labeldistance=2.5, labelangle=45, headlabel="True"] ;
2 [label="Age <= 11.0\ngini = 0.571\nsamples = 7\nvalue = [1, 0, 0, 4, 2, 0]\nclass = metro", fillcolor="#b0d8f5"] ;
1 -> 2 ;
3 [label="Gender <= 0.5\ngini = 0.5\nsamples = 2\nvalue = [1, 0, 0, 0, 1, 0]\nclass = bicycle", fillcolor="#ffffff"] ;
2 -> 3 ;
4 [label="gini = 0.0\nsamples = 1\nvalue = [1, 0, 0, 0, 0, 0]\nclass = bicycle", fillcolor="#e58139"] ;
3 -> 4 ;
5 [label="gini = 0.0\nsamples = 1\nvalue = [0, 0, 0, 0, 1, 0]\nclass = scooter", fillcolor="#8139e5"] ;
3 -> 5 ;
6 [label="Income <= 150.0\ngini = 0.32\nsamples = 5\nvalue = [0, 0, 0, 4, 1, 0]\nclass = metro", fillcolor="#6ab6ec"] ;
2 -> 6 ;
7 [label="gini = 0.0\nsamples = 3\nvalue = [0, 0, 0, 3, 0, 0]\nclass = metro", fillcolor="#399de5"] ;
6 -> 7 ;
8 [label="Gender <= 0.5\ngini = 0.5\nsamples = 2\nvalue = [0, 0, 0, 1, 1, 0]\nclass = metro", fillcolor="#ffffff"] ;
6 -> 8 ;
9 [label="gini = 0.0\nsamples = 1\nvalue = [0, 0, 0, 1, 0, 0]\nclass = metro", fillcolor="#399de5"] ;
8 -> 9 ;
10 [label="gini = 0.0\nsamples = 1\nvalue = [0, 0, 0, 0, 1, 0]\nclass = scooter", fillcolor="#8139e5"] ;
8 -> 10 ;
11 [label="gini = 0.0\nsamples = 3\nvalue = [0, 0, 0, 0, 0, 3]\nclass = taxi", fillcolor="#e5399d"] ;
1 -> 11 ;
12 [label="Income <= 17000.0\ngini = 0.46\nsamples = 10\nvalue = [0, 7, 2, 0, 0, 1]\nclass = car", fillcolor="#c2ef83"] ;
0 -> 12 [labeldistance=2.5, labelangle=-45, headlabel="False"] ;
13 [label="Income <= 4000.0\ngini = 0.219\nsamples = 8\nvalue = [0, 7, 0, 0, 0, 1]\nclass = car", fillcolor="#abe955"] ;
12 -> 13 ;
14 [label="Gender <= 0.5\ngini = 0.5\nsamples = 2\nvalue = [0, 1, 0, 0, 0, 1]\nclass = car", fillcolor="#ffffff"] ;
13 -> 14 ;
15 [label="gini = 0.0\nsamples = 1\nvalue = [0, 1, 0, 0, 0, 0]\nclass = car", fillcolor="#9de539"] ;
14 -> 15 ;
16 [label="gini = 0.0\nsamples = 1\nvalue = [0, 0, 0, 0, 0, 1]\nclass = taxi", fillcolor="#e5399d"] ;
14 -> 16 ;
17 [label="gini = 0.0\nsamples = 6\nvalue = [0, 6, 0, 0, 0, 0]\nclass = car", fillcolor="#9de539"] ;
13 -> 17 ;
18 [label="gini = 0.0\nsamples = 2\nvalue = [0, 0, 2, 0, 0, 0]\nclass = helicopter", fillcolor="#39e581"] ;
12 -> 18 ;
}